{"layers": [{"layer": [{"value": 0}, {"value": 0.4}, {"value": 0.2}, {"value": 0.4}, {"value": 0.3}, {"value": 0.7}, {"value": 1}, {"value": 0}]}, {"layer": [{"weights": [0.8474337369372327, -0.2550690257394217, 0.4494910647887381, -0.7887233511355132, 0.02834747652200631, -0.43276706790505337, -0.0021060533511106927, 0.7215400323407826], "value": -1.4730804029841889}, {"weights": [0.9452706955539223, -0.030589983033553536, 0.5414124727934966, -0.38120423768821243, 0.4221165755827173, 0.22169166627303505, 0.49581224138185065, 0.2308665415409843], "value": 1.5492680519669009}, {"weights": [0.4596034657377336, 0.021489705265908876, -0.5564543226524334, -0.1859062658947177, -0.8599465287952899, 0.3326951853601291, -0.7111917696952796, -0.4221069999614152], "value": -1.533722577536229}, {"weights": [-0.670305566414071, 0.5875806061435594, -0.8461974184283128, -0.5890022579825517, 0.24273997354306764, -0.4143139993007743, 0.548798761388153, -0.6744858305023272], "value": -0.02722808465896298}]}, {"layer": [{"weights": [0.4389616300445631, -0.7784426150001458, -0.39325509496422606, 0.029574963966907064], "value": -1.0127267169522023}, {"weights": [0.703382088603836, -0.5931837303800576, 0.17034919685568128, -0.9820766375385342], "value": -2.5628261228124094}, {"weights": [-0.5396174484497788, -0.23217612806301458, -0.9524673882682695, -0.45913173191066836], "value": 1.2274774103962438}, {"weights": [0.5479963094662489, -0.005709129450392925, -0.8204859119254819, -0.7405034118331963], "value": 0.04847019912503096}]}, {"layer": [{"weights": [-0.518678283523002, -0.4260906796881502, 0.8700101551766398, -0.19983942017714307], "value": 2.882755495164746}, {"weights": [-0.48492511222773416, 0.3460779190181549, -0.6234894527975051, -0.4581468000997244], "value": -1.1365321703262823}, {"weights": [0.22960503127702392, 0.5844608707784413, -0.798438940577426, -0.8164373705606909], "value": -2.7151726498499107}, {"weights": [0.841744832274096, -0.08323413780389788, 0.014559974924812313, -0.2495592256534228], "value": -0.4059032288804353}, {"weights": [0.6248020841524763, 0.06951537853084733, 0.5273803990480128, 0.2729144368186801], "value": -0.44551752079244844}, {"weights": [-0.4547016300456639, 0.4737710141702789, 0.38655710476146987, 0.18803930475131292], "value": 0.800306091569949}]}]}
